svm_type c_svc
kernel_type rbf
gamma 50
nr_class 4
total_sv 350
rho -0.549885 -1.41449 -0.922031 0.0299564 -0.0129332 -0.275961
label 4 1 3 2
nr_sv 139 42 77 92
SV
10.08610097669673 0 0 0:0.173 1:0.14 2:0.134 3:0.25 4:0.323 
0 0 50.26532672367524 0:0.298 1:0.135 2:0.285 3:0.151 4:0.239 
0 0 5.046213318559056 0:0.219 1:0.138 2:0.204 3:0.227 4:0.283 
0.08632723369908298 0 0 0:0.188 1:0.519 2:0.143 3:0.25 4:0.141 
0 0 49.1692530576541 0:0.316 1:0.209 2:0.301 3:0.128 4:0.201 
0 1.052092998090801 0 0:0.308 1:0.508 2:0.309 3:0.253 4:0.17 
0 0.3500207906380143 0 0:0.312 1:0.213 2:0.194 3:0.244 4:0.413 
0 0 0.2722590634787926 0:0.266 1:0.429 2:0.375 3:0.162 4:0.222 
2.054258993809381 0.1606086293762252 2.04805881128035 0:0.041 1:0.091 2:0.272 3:0.311 4:0.327 
0 2.749212475746966 0 0:0.216 1:0.128 2:0.067 3:0.157 4:0.286 
0.7347920418708872 0 3.560157513916054 0:0.258 1:0.332 2:0.324 3:0.108 4:0.293 
1.064772865842731 0 0 0:0.179 1:0.091 2:0.242 3:0.324 4:0.523 
0 0 100 0:0.237 1:0.195 2:0.277 3:0.192 4:0.32 
0 0 10.38720498353553 0:0.303 1:0.149 2:0.349 3:0.239 4:0.172 
0 24.6743140047417 0 0:0.26 1:0.162 2:0.198 3:0.147 4:0.291 
0 0.7990421320476013 0 0:0.346 1:0.444 2:0.234 3:0.233 4:0.14 
0 41.52219709296046 0 0:0.227 1:0.431 2:0.28 3:0.223 4:0.182 
0.3097365537578186 0.3171572174477272 0 0:0.057 1:0.465 2:0.275 3:0.362 4:0.136 
0 0 11.71848892766078 0:0.271 1:0.148 2:0.229 3:0.186 4:0.134 
0 0 61.82769353267646 0:0.233 1:0.19 2:0.245 3:0.227 4:0.31 
0 15.74037774809698 11.74891968389085 0:0.173 1:0.34 2:0.267 3:0.178 4:0.198 
0 0.5116089522506756 0 0:0.107 1:0.008 2:0.204 3:0.15 4:0.032 
0 1.027590547765146 1.568532929886588 0:0.273 1:0.013 2:0.17 3:0.171 4:0.1 
0 1.976187987931152 0 0:0.181 1:0.251 2:0.357 3:0.218 4:0.171 
0 0 18.83312410546417 0:0.225 1:0.194 2:0.275 3:0.173 4:0.315 
0 31.82108272299669 1.23607111053998 0:0.213 1:0.415 2:0.163 3:0.218 4:0.18 
0 0 100 0:0.224 1:0.188 2:0.274 3:0.163 4:0.314 
2.271742606851172 21.27347455243526 0 0:0.291 1:0.307 2:0.168 3:0.134 4:0.146 
0 42.77986228895477 0 0:0.23 1:0.164 2:0.167 3:0.231 4:0.321 
0 32.50204282260473 13.45091617696708 0:0.211 1:0.417 2:0.225 3:0.138 4:0.15 
0 20.87585796914818 0 0:0.233 1:0.538 2:0.268 3:0.225 4:0.168 
0.1018815331480305 0 0 0:0.262 1:0 2:0.148 3:0.157 4:0.087 
0 33.19305136759802 0 0:0.27 1:0.133 2:0.224 3:0.19 4:0.327 
0 22.72657139426894 0 0:0.171 1:0.182 2:0.2 3:0.186 4:0.163 
2.528973709256538 0 0 0:0.191 1:0.189 2:0.174 3:0.195 4:0.306 
0 62.7759396233479 0 0:0.169 1:0.173 2:0.196 3:0.178 4:0.161 
0 0.5962997096157064 0 0:0.199 1:0.211 2:0.23 3:0.366 4:0.424 
0.9405338131421761 17.00022407768053 25.21632515086631 0:0.198 1:0.118 2:0.216 3:0.254 4:0.419 
0 0 1.896944710881852 0:0.251 1:0.294 2:0.127 3:0.22 4:0.204 
0 52.46942826638626 0 0:0.226 1:0.175 2:0.262 3:0.16 4:0.231 
0 0 6.054993336032812 0:0.251 1:0.174 2:0.191 3:0.204 4:0.183 
1.403970612558687 0 0 0:0.342 1:0.145 2:0.131 3:0.12 4:0.462 
0 19.64496834303107 0 0:0.226 1:0.162 2:0.166 3:0.19 4:0.169 
0.2301490051880426 0 0.03971097541786314 0:0.174 1:0.688 2:0.19 3:0.552 4:0.424 
0 0 0.3424232646284825 0:0.341 1:0.429 2:0.231 3:0.217 4:0.147 
0.2338173573027759 0 0.04081229689197352 0:0.158 1:0.67 2:0.175 3:0.516 4:0.401 
0 0 42.25020866127016 0:0.272 1:0.163 2:0.345 3:0.187 4:0.294 
0 25.62998069157696 0 0:0.318 1:0.171 2:0.156 3:0.225 4:0.309 
2.406342538429185 0 0 0:0.184 1:0.258 2:0.384 3:0.227 4:0.189 
0 95.04834095121208 0 0:0.207 1:0.124 2:0.196 3:0.211 4:0.276 
0.05059978658877928 0 0 0:0.487 1:0.086 2:0.269 3:0.318 4:0.109 
0 0 29.90309951230319 0:0.246 1:0.202 2:0.277 3:0.178 4:0.237 
4.866417320857092 77.56759151610031 27.09090235504087 0:0.273 1:0.163 2:0.312 3:0.18 4:0.119 
0 47.16149464563781 0 0:0.33 1:0.161 2:0.232 3:0.122 4:0.133 
0 8.141884268574936 0.1618497463940834 0:0.238 1:0.114 2:0.223 3:0.433 4:0.349 
0.3331974586171494 0 0 0:0.339 1:0.529 2:0.335 3:0.273 4:0.195 
0 0 100 0:0.215 1:0.203 2:0.19 3:0.206 4:0.32 
0 0 53.71047753466804 0:0.264 1:0.107 2:0.263 3:0.197 4:0.208 
0.8333488735230761 0 0 0:0.184 1:0.317 2:0.244 3:0.287 4:0.098 
0 7.343792493433644 0 0:0.212 1:0.185 2:0.317 3:0.268 4:0.151 
2.557533311610688 0 2.815466841533046 0:0.102 1:0.003 2:0.219 3:0.154 4:0.041 
0 1.990946556456548 2.040155161347013 0:0.474 1:0.088 2:0.274 3:0.316 4:0.102 
0.2686119192016141 0 0.04832687538902469 0:0.294 1:0.773 2:0.319 3:0.376 4:0.46 
1.21919327621133 0 0 0:0.411 1:0.084 2:0.165 3:0.249 4:0.363 
0 8.818388969929904 0 0:0.304 1:0.194 2:0.288 3:0.11 4:0.167 
0 1.736258668152051 14.86422146006071 0:0.26 1:0.191 2:0.267 3:0.216 4:0.364 
0 11.63596944783369 0 0:0.188 1:0.364 2:0.122 3:0.151 4:0.209 
0 0 100 0:0.268 1:0.191 2:0.227 3:0.19 4:0.329 
0 0 1.060339534746217 0:0.427 1:0.19 2:0.316 3:0.191 4:0.294 
0 8.385059978319147 0 0:0.251 1:0.269 2:0.364 3:0.216 4:0.123 
0 0.5690119926733709 0 0:0.295 1:0.185 2:0.343 3:0.198 4:0.144 
1.957605342080788 0 0 0:0.1 1:0.099 2:0.31 3:0.297 4:0.166 
0.1944403761639714 39.23930248166798 0 0:0.266 1:0.143 2:0.225 3:0.182 4:0.131 
0.658114210650427 0 0 0:0.348 1:0.296 2:0.476 3:0.212 4:0.074 
0.05024738551957891 0 0 0:0.363 1:0.156 2:0.155 3:0.131 4:0.486 
0 0 10.17344270035341 0:0.215 1:0.185 2:0.306 3:0.254 4:0.16 
0 0 0.8196146298057094 0:0.291 1:0.332 2:0.275 3:0.219 4:0.231 
0.03274416039979439 0 0 0:0.219 1:0.189 2:0.325 3:0.273 4:0.161 
0 10.2856366286274 100 0:0.211 1:0.215 2:0.201 3:0.217 4:0.319 
0 0 100 0:0.233 1:0.202 2:0.278 3:0.178 4:0.321 
0 57.24560047949155 0 0:0.275 1:0.121 2:0.193 3:0.278 4:0.363 
0 0 55.93809806592434 0:0.239 1:0.192 2:0.275 3:0.173 4:0.236 
0.08207753899566606 0 0 0:0.252 1:0.545 2:0.283 3:0.246 4:0.19 
0.1329591295690835 0 0 0:0.054 1:0.049 2:0.185 3:0.345 4:0.124 
0 5.662592116000279 0 0:0.294 1:0.183 2:0.325 3:0.293 4:0.424 
0 0 6.673082405792948 0:0.417 1:0.174 2:0.282 3:0.164 4:0.275 
0 0 59.41381674829919 0:0.251 1:0.221 2:0.233 3:0.188 4:0.299 
4.517056827318103 4.002658153100239 0 0:0.219 1:0.191 2:0.248 3:0.22 4:0.305 
0 11.15579165177305 2.324913611804148 0:0.258 1:0.315 2:0.254 3:0.204 4:0.224 
0 0 7.529135918203655 0:0.313 1:0.144 2:0.275 3:0.158 4:0.254 
0 0 4.625876635846444 0:0.089 1:0.09 2:0.298 3:0.271 4:0.163 
3.051661774428262 0 0 0:0.389 1:0.112 2:0.456 3:0.277 4:0.185 
0 0 6.555584374971572 0:0.252 1:0.454 2:0.193 3:0.143 4:0.242 
0 0 0.8760355398351766 0:0.135 1:0.014 2:0.217 3:0.349 4:0.46 
15.85639262033106 0 0 0:0.169 1:0.164 2:0.183 3:0.174 4:0.149 
0.1885590368621659 0 0 0:0.504 1:0.092 2:0.294 3:0.346 4:0.13 
0 29.94485710359856 0 0:0.232 1:0.269 2:0.12 3:0.201 4:0.181 
0 100 0 0:0.215 1:0.421 2:0.171 3:0.231 4:0.179 
1.396273560577682 0 7.312584904178594 0:0.247 1:0.312 2:0.31 3:0.122 4:0.105 
0 13.83857645507427 0 0:0.207 1:0.196 2:0.185 3:0.204 4:0.318 
1.189903953882163 0 0 0:0.253 1:0 2:0.138 3:0.144 4:0.091 
0 0 0.003199340498472838 0:0.302 1:0.78 2:0.305 3:0.376 4:0.443 
0 0 2.573222514022617 0:0.275 1:0.456 2:0.321 3:0.191 4:0.167 
0 0 10.1524730896109 0:0.302 1:0.319 2:0.182 3:0.146 4:0.157 
0 7.291812100084075 0 0:0.168 1:0.273 2:0.133 3:0.135 4:0.228 
0 8.735314987215682 3.306667230428931 0:0.193 1:0.32 2:0.245 3:0.287 4:0.104 
5.543036655502369 0 0 0:0.191 1:0.198 2:0.215 3:0.345 4:0.4 
0 2.471390513606627 0 0:0.432 1:0.104 2:0.178 3:0.274 4:0.367 
0 0 0.4841821045606027 0:0.158 1:0.036 2:0.179 3:0.274 4:0.322 
8.37910573665172 0 0 0:0.146 1:0.245 2:0.112 3:0.124 4:0.208 
0.01878305590450156 0 0 0:0.362 1:0.325 2:0.274 3:0.113 4:0.12 
0 0 57.94904219711959 0:0.332 1:0.195 2:0.184 3:0.247 4:0.339 
3.767585467604525 0 0 0:0.191 1:0.242 2:0.325 3:0.155 4:0.386 
0 0 67.92691811267423 0:0.264 1:0.183 2:0.225 3:0.186 4:0.325 
0.1800943769136885 0 0.02616767883317329 0:0.29 1:0.769 2:0.291 3:0.367 4:0.438 
2.21656112534816 0 0 0:0.231 1:0.268 2:0.114 3:0.197 4:0.178 
0 1.696854408308124 0 0:0.316 1:0.231 2:0.207 3:0.27 4:0.424 
0 84.86358273623273 0 0:0.24 1:0.103 2:0.242 3:0.169 4:0.194 
0 0 2.412650472879474 0:0.193 1:0.364 2:0.128 3:0.163 4:0.217 
0 0 6.139730913683532 0:0.247 1:0.136 2:0.138 3:0.258 4:0.261 
0 0 58.29963817067437 0:0.184 1:0.186 2:0.201 3:0.204 4:0.173 
0 100 100 0:0.267 1:0.16 2:0.245 3:0.182 4:0.144 
0 1.014430905101682 1.434510999974614 0:0.267 1:0.468 2:0.218 3:0.154 4:0.264 
0 2.440515653244532 0 0:0.193 1:0.255 2:0.333 3:0.174 4:0.4 
2.788150188219419 0 9.45509235909179 0:0.164 1:0.051 2:0.186 3:0.291 4:0.341 
30.34098567966748 33.6032949065579 0 0:0.317 1:0.153 2:0.219 3:0.111 4:0.121 
0.5865082912284297 29.12056785697291 3.722221211526669 0:0.149 1:0.376 2:0.164 3:0.211 4:0.127 
0 6.528425531156778 0 0:0.202 1:0.136 2:0.232 3:0.262 4:0.418 
0 0 34.71071404322154 0:0.282 1:0.2 2:0.232 3:0.203 4:0.335 
0 1.210811365429596 0 0:0.264 1:0.287 2:0.294 3:0.334 4:0.323 
0 25.83372193475354 0 0:0.169 1:0.412 2:0.188 3:0.223 4:0.143 
3.472369180228756 0 0 0:0.163 1:0.129 2:0.124 3:0.231 4:0.313 
0 0.3372192379290395 0 0:0.377 1:0.103 2:0.443 3:0.25 4:0.164 
0.1598084921163064 0 98.80004717935223 0:0.223 1:0.152 2:0.268 3:0.166 4:0.319 
0.4305843636764538 0 0 0:0.266 1:0.357 2:0.329 3:0.142 4:0.311 
0 0.441635184674471 5.678021980790184 0:0.195 1:0.369 2:0.13 3:0.152 4:0.211 
0 10.62711607512028 0 0:0.255 1:0.468 2:0.203 3:0.156 4:0.252 
0.08319463466342727 0 0 0:0.229 1:0.105 2:0.217 3:0.42 4:0.334 
0 5.031676792389814 0 0:0.218 1:0.155 2:0.171 3:0.186 4:0.175 
-0.9641588205800735 0 0.1419636390970481 0:0.288 1:0.251 2:0.246 3:0.122 4:0.421 
-0.5231598044928628 0 1.331424493877976 0:0.323 1:0.116 2:0.528 3:0.354 4:0.149 
-1.836249189667088 0 0 0:0.107 1:0.223 2:0.186 3:0.17 4:0.212 
-4.093891912112436 3.856550717915397 4.382054067235408 0:0.195 1:0.127 2:0.293 3:0.32 4:0.11 
-14.42279622664006 0 0 0:0.171 1:0.219 2:0.125 3:0.16 4:0.15 
-0 0 0.7054423544283362 0:0.106 1:0.127 2:0.275 3:0.266 4:0.313 
-0 0 0.6519396117861318 0:0.283 1:0.009 2:0.243 3:0.095 4:0.069 
-1.646425309920562 12.51741807418437 8.685136214515508 0:0.298 1:0.272 2:0.182 3:0.22 4:0.108 
-4.888780230877817 2.353746668431623 9.818076997720738 0:0.134 1:0.041 2:0.214 3:0.12 4:0.127 
-0 2.80489448814002 0 0:0.172 1:0.233 2:0.35 3:0.172 4:0.263 
-0 0 3.708389713090599 0:0.089 1:0.094 2:0.106 3:0.095 4:0.179 
-3.079950883984794 1.974524855594384 2.572588594422425 0:0.294 1:0.263 2:0.247 3:0.134 4:0.418 
-1.136409232661856 2.995379614380259 0 0:0.11 1:0.107 2:0.126 3:0.111 4:0.185 
-0 0.7113377719441309 0 0:0.314 1:0.111 2:0.524 3:0.349 4:0.133 
-0.744682357476585 0.3014483227732274 1.403610498039381 0:0.092 1:0.145 2:0.068 3:0.073 4:0.017 
-17.55242608200669 6.992588179611077 11.7263315274579 0:0.168 1:0.149 2:0.187 3:0.269 4:0.315 
-0 0.1345424181166245 0 0:0.124 1:0.097 2:0.225 3:0.166 4:0.306 
-4.467193732317653 0 0 0:0.103 1:0.206 2:0.182 3:0.163 4:0.2 
-0 0 4.183699979751821 0:0.286 1:0.244 2:0.164 3:0.21 4:0.1 
-1.160927366424261 0 0 0:0.312 1:0.113 2:0.517 3:0.336 4:0.129 
-0 0.4226625424567851 0 0:0.314 1:0.264 2:0.3 3:0.297 4:0.031 
-0 2.553629570539347 19.63716968225522 0:0.132 1:0.116 2:0.233 3:0.178 4:0.327 
-0.3260553531796406 0 0 0:0.417 1:0.161 2:0.526 3:0.262 4:0.169 
-35.16380432642015 27.79841549432919 6.334955585086503 0:0.295 1:0.166 2:0.226 3:0.12 4:0.108 
-2.695763804916122 3.850045811098729 0 0:0.303 1:0.023 2:0.263 3:0.112 4:0.073 
-0 0.5715471488466615 0.8557813556886666 0:0.435 1:0.17 2:0.544 3:0.265 4:0.178 
-1.783613488923771 0 0 0:0.147 1:0.121 2:0.178 3:0.248 4:0.298 
-0 0 6.139726680135522 0:0.162 1:0.224 2:0.347 3:0.17 4:0.263 
-6.558123061632109 0 1.863555325568274 0:0.185 1:0.238 2:0.358 3:0.18 4:0.278 
-1.478995449123912 1.489586385578946 0 0:0.329 1:0.274 2:0.309 3:0.305 4:0.033 
-0 27.15457045135352 3.970816078794442 0:0.187 1:0.234 2:0.133 3:0.168 4:0.142 
-5.072783634132313 1.391052442381522 1.391881041338209 0:0.138 1:0.197 2:0.234 3:0.352 4:0.472 
-0 0 2.022757627504071 0:0.13 1:0.019 2:0.192 3:0.098 4:0.115 
-1.433841743282078 0.3360838685169527 0 0:0.408 1:0.152 2:0.522 3:0.253 4:0.154 
-2.643412463884868 1.460202221379967 1.066088036987227 0:0.345 1:0.005 2:0.116 3:0.228 4:0.378 
-0 2.892873637361869 0 0:0.164 1:0.121 2:0.118 3:0.125 4:0.34 
-0 0 2.260395488135811 0:0.119 1:0.137 2:0.277 3:0.283 4:0.314 
-6.479869923134959 0 0 0:0.166 1:0.134 2:0.128 3:0.148 4:0.348 
-0.2769201502204537 0.1017431496315393 0.5732482949833135 0:0.324 1:0 2:0.08 3:0.202 4:0.358 
-0 0 1.423942079894575 0:0.304 1:0.256 2:0.297 3:0.279 4:0.021 
-0 4.772549787147088 2.514118732282828 0:0.104 1:0.22 2:0.199 3:0.18 4:0.219 
-1.426870404653834 0 0 0:0.4 1:0.152 2:0.524 3:0.252 4:0.16 
-0 -9.962913033986629 4.267656209415106 0:0.289 1:0.121 2:0.248 3:0.137 4:0.118 
-9.991145019038449 -0 0 0:0.238 1:0.511 2:0.246 3:0.202 4:0.125 
-7.156737550358786 -0 0 0:0.226 1:0.285 2:0.176 3:0.092 4:0.22 
-36.68326963713356 -4.859876629673142 0 0:0.183 1:0.208 2:0.121 3:0.231 4:0.177 
-46.29244209182267 -0 0 0:0.24 1:0.138 2:0.18 3:0.223 4:0.333 
-0 -0 5.001781348430868 0:0.266 1:0.253 2:0.189 3:0.274 4:0.097 
-21.87999822575221 -0 0 0:0.232 1:0.455 2:0.274 3:0.209 4:0.204 
-5.770134787558309 -0 0 0:0.228 1:0.378 2:0.187 3:0.134 4:0.039 
-0 -0 87.38171816916827 0:0.173 1:0.23 2:0.233 3:0.214 4:0.154 
-8.347621532327766 -0 0 0:0.303 1:0.134 2:0.256 3:0.142 4:0.131 
-0 -0 12.26912774141616 0:0.198 1:0.228 2:0.131 3:0.255 4:0.197 
-0 -0.1605183302109489 7.810499911074489 0:0.308 1:0.02 2:0.284 3:0.376 4:0.179 
-0 -14.01699802407352 0 0:0.254 1:0.224 2:0.175 3:0.113 4:0.124 
-0 -1.362581886808279 4.416935445782617 0:0.305 1:0.086 2:0.359 3:0.106 4:0.056 
-2.938416808063332 -0 0 0:0.235 1:0.243 2:0.232 3:0.306 4:0.19 
-100 -0 21.52057124183292 0:0.247 1:0.14 2:0.193 3:0.227 4:0.333 
-0 -0 4.467724684177414 0:0.122 1:0.446 2:0.21 3:0.132 4:0.18 
-16.42734195628483 -0 46.86100764271498 0:0.23 1:0.18 2:0.227 3:0.2 4:0.117 
-4.052998545927754 -0 0 0:0.107 1:0.433 2:0.2 3:0.132 4:0.167 
-0 -0 18.23588769171659 0:0.29 1:0 2:0.271 3:0.363 4:0.154 
-15.19909521019205 -1.530169321442595 1.456427256671616 0:0.226 1:0.148 2:0.234 3:0.427 4:0.382 
-8.76004663874526 -0 0 0:0.366 1:0.185 2:0.287 3:0.191 4:0.168 
-0 -0 81.46802232986784 0:0.215 1:0.226 2:0.218 3:0.285 4:0.161 
-100 -10.74243413416044 0 0:0.306 1:0.141 2:0.256 3:0.143 4:0.124 
-100 -0 1.384367508295041 0:0.202 1:0.41 2:0.197 3:0.202 4:0.171 
-0 -0 12.47303830408858 0:0.375 1:0.19 2:0.291 3:0.199 4:0.178 
-0 -0 95.8140793256386 0:0.163 1:0.219 2:0.225 3:0.204 4:0.138 
-98.3066051759325 -0 0 0:0.253 1:0.199 2:0.305 3:0.195 4:0.142 
-9.072124600585113 -0.4953438893621779 0 0:0.252 1:0.473 2:0.288 3:0.241 4:0.227 
-12.4200351355007 -0 72.0866442169829 0:0.288 1:0.065 2:0.28 3:0.302 4:0.105 
-3.218769481790691 -0 0 0:0.155 1:0.028 2:0.255 3:0.242 4:0.329 
-46.78258380002107 -0 0 0:0.206 1:0.158 2:0.216 3:0.182 4:0.11 
-0 -1.083123736230925 0 0:0.265 1:0.039 2:0.266 3:0.291 4:0.083 
-0 -0 0.5149313859366205 0:0.176 1:0.405 2:0.13 3:0.256 4:0.172 
-100 -0 100 0:0.195 1:0.125 2:0.232 3:0.174 4:0.219 
-0 -0.04329729035806877 0 0:0.389 1:0.204 2:0.318 3:0.22 4:0.19 
-14.68684912407755 -0.5277657755404057 0 0:0.256 1:0.52 2:0.254 3:0.211 4:0.133 
-0 -4.653749132156434 0 0:0.175 1:0.217 2:0.124 3:0.233 4:0.164 
-10.69920782010266 -0 0 0:0.183 1:0.332 2:0.155 3:0.136 4:0.183 
-28.37921426018348 -4.523313319680462 6.740332835076726 0:0.211 1:0.107 2:0.216 3:0.245 4:0.366 
-20.49035426141058 -0 0 0:0.243 1:0.345 2:0.128 3:0.241 4:0.136 
-0 -0 4.334120868741398 0:0.257 1:0.159 2:0.272 3:0.229 4:0.432 
-3.280691892168432 -0 10.46092396570181 0:0.214 1:0.408 2:0.195 3:0.204 4:0.185 
-0 -7.192227517019168 22.51379498456518 0:0.166 1:0.22 2:0.214 3:0.195 4:0.29 
-0 -0 32.1157912490203 0:0.21 1:0.43 2:0.203 3:0.129 4:0.215 
-10.12331590037929 -0 0 0:0.278 1:0.17 2:0.282 3:0.241 4:0.44 
-75.88768573559418 -0 0 0:0.238 1:0.152 2:0.179 3:0.175 4:0.237 
-0 -0 35.22706933492196 0:0.247 1:0.194 2:0.3 3:0.182 4:0.132 
-0 -0.7428629838911516 0 0:0.299 1:0.003 2:0.284 3:0.375 4:0.171 
-9.664532288062111 -0 0 0:0.213 1:0.432 2:0.19 3:0.13 4:0.216 
-0 -0 66.34881912423667 0:0.179 1:0.12 2:0.222 3:0.158 4:0.212 
-7.714022753972879 -0 0 0:0.217 1:0.465 2:0.175 3:0.122 4:0.107 
-1.785299556412324 -0 0 0:0.272 1:0.112 2:0.221 3:0.185 4:0.373 
-27.39645467544256 -0 0 0:0.205 1:0.139 2:0.24 3:0.165 4:0.224 
-6.384873993144335 -0 0 0:0.325 1:0.1 2:0.392 3:0.132 4:0.083 
-0 -5.169368772573534 0 0:0.169 1:0.116 2:0.116 3:0.112 4:0.217 
-29.71319921362445 -0 28.54711707032405 0:0.187 1:0.238 2:0.232 3:0.198 4:0.297 
-6.641706928967857 -0 0 0:0.177 1:0.23 2:0.219 3:0.192 4:0.289 
-51.09727780687864 -0 0 0:0.229 1:0.418 2:0.208 3:0.223 4:0.195 
-0 -2.727886756057226 0 0:0.126 1:0.2 2:0.117 3:0.231 4:0.099 
-0 -8.807688233726457 3.997999124064877 0:0.296 1:0.271 2:0.207 3:0.279 4:0.113 
-1.449414468715494 -0.3670933218085733 2.366332317010529 0:0.355 1:0.18 2:0.182 3:0.3 4:0.355 
-0 -1.372382646686723 0 0:0.091 1:0.12 2:0.303 3:0.16 4:0.094 
-5.280754795014781 -0.6100380667435177 0 0:0.282 1:0.18 2:0.277 3:0.242 4:0.437 
-0 -0 20.4843083343768 0:0.115 1:0.128 2:0.326 3:0.171 4:0.113 
-10.48843122162072 -4.09805571788442 0 0:0.163 1:0.316 2:0.142 3:0.129 4:0.161 
-0 -8.177028455000283 0 0:0.266 1:0.227 2:0.173 3:0.125 4:0.135 
-0 -0 40.23758046511109 0:0.17 1:0.327 2:0.156 3:0.14 4:0.168 
-33.84519509551664 -0 0 0:0.328 1:0.149 2:0.173 3:0.277 4:0.328 
-0 -2.244887668999775 5.05713159797927 0:0.14 1:0.013 2:0.238 3:0.222 4:0.313 
-0 -1.546041323657759 0 0:0.165 1:0.11 2:0.132 3:0.107 4:0.217 
-100 -0 0 0:0.274 1:0.131 2:0.232 3:0.157 4:0.169 
-0 -6.102294368915582 0 0:0.214 1:0.308 2:0.118 3:0.205 4:0.101 
-17.6313077675925 -6.317453285065037 16.49016059899797 0:0.149 1:0.211 2:0.205 3:0.193 4:0.124 
-42.40697599487444 -0 21.1479734604982 0:0.292 1:0.244 2:0.189 3:0.137 4:0.152 
-51.99493265378132 -0 0 0:0.175 1:0.402 2:0.134 3:0.245 4:0.169 
-14.85025474860071 -0 0 0:0.151 1:0.388 2:0.246 3:0.27 4:0.167 
-1.834144143817738 -0 -0 0:0.211 1:0.01 2:0.252 3:0.071 4:0.195 
-2.183656288119035 -0.5277649567583538 -0 0:0.324 1:0.072 2:0.351 3:0.434 4:0.125 
-100 -0 -0 0:0.253 1:0.195 2:0.251 3:0.195 4:0.339 
-1.19299734249121 -1.401156237354416 -0.4944618197020844 0:0.397 1:0.055 2:0.557 3:0.404 4:0.252 
-78.77287229393816 -0 -0 0:0.273 1:0.191 2:0.3 3:0.166 4:0.283 
-0 -0 -41.35905636458498 0:0.302 1:0.046 2:0.275 3:0.318 4:0.132 
-1.970902505207773 -3.306680137588847 -0 0:0.11 1:0.212 2:0.377 3:0.174 4:0.172 
-0 -0 -45.54344846392807 0:0.217 1:0.209 2:0.193 3:0.296 4:0.148 
-35.68268429052743 -0 -0 0:0.232 1:0.241 2:0.236 3:0.199 4:0.334 
-0.04634370889508205 -1.103698013299602 -10.8534420063756 0:0.298 1:0.042 2:0.34 3:0.403 4:0.092 
-0 -3.864334237024395 -0 0:0.129 1:0.05 2:0.126 3:0.107 4:0.134 
-0 -0 -52.30770679655856 0:0.204 1:0.191 2:0.267 3:0.278 4:0.132 
-1.890450839555832 -1.120686403366019 -2.058875612056189 0:0.254 1:0.184 2:0.139 3:0.335 4:0.475 
-18.96707826340486 -0.6228225359445212 -0 0:0.178 1:0.21 2:0.387 3:0.243 4:0.321 
-100 -0 -31.39149769608761 0:0.238 1:0.171 2:0.223 3:0.217 4:0.195 
-0.8880864263368374 -0.1206822405655295 -0.8188857931824469 0:0.42 1:0.075 2:0.59 3:0.436 4:0.259 
-17.05431487967624 -0 -100 0:0.176 1:0.113 2:0.234 3:0.168 4:0.213 
-0 -0.3939130112647192 -0 0:0.311 1:0.201 2:0.374 3:0.11 4:0.364 
-0 -5.464192133397172 -0 0:0.165 1:0.064 2:0.147 3:0.275 4:0.388 
-32.54716300702942 -0 -100 0:0.175 1:0.23 2:0.22 3:0.191 4:0.159 
-100 -0 -0 0:0.216 1:0.219 2:0.222 3:0.193 4:0.326 
-0 -0 -26.97954489643337 0:0.184 1:0.238 2:0.225 3:0.194 4:0.163 
-0 -0 -3.604670568524874 0:0.302 1:0.28 2:0.184 3:0.329 4:0.226 
-0 -0 -1.218381273444051 0:0.198 1:0.231 2:0.403 3:0.264 4:0.332 
-100 -0 -0.1749041150115862 0:0.258 1:0.176 2:0.298 3:0.154 4:0.279 
-1.879085494979027 -0 -0 0:0.27 1:0.381 2:0.257 3:0.152 4:0.168 
-0 -3.291467860561069 -0 0:0.19 1:0 2:0.242 3:0.06 4:0.176 
-0 -0 -3.058102630904114 0:0.289 1:0.268 2:0.17 3:0.315 4:0.213 
-11.82084936374298 -0 -0 0:0.29 1:0.396 2:0.278 3:0.162 4:0.19 
-100 -0 -17.11630415140519 0:0.216 1:0.214 2:0.208 3:0.193 4:0.322 
-15.48397259349269 -16.5190335170658 -21.14590634562239 0:0.273 1:0.235 2:0.206 3:0.196 4:0.11 
-26.91930324968108 -0 -0 0:0.169 1:0.125 2:0.29 3:0.196 4:0.322 
-18.63479099378699 -0 -1.589326524385739 0:0.253 1:0.237 2:0.255 3:0.125 4:0.163 
-1.014278660695486 -0.4634978154163819 -0.6779495672438057 0:0.456 1:0.4 2:0.61 3:0.473 4:0.153 
-0 -0.1527699839824886 -3.94116421302188 0:0.198 1:0.133 2:0.308 3:0.13 4:0.097 
-1.495614898024482 -1.45589377324078 -0.07690433011114475 0:0.323 1:0.215 2:0.378 3:0.118 4:0.381 
-75.28388396864024 -0 -0 0:0.287 1:0.142 2:0.282 3:0.188 4:0.166 
-100 -0 -0 0:0.242 1:0.185 2:0.26 3:0.195 4:0.331 
-0 -0 -100 0:0.165 1:0.226 2:0.215 3:0.193 4:0.145 
-87.6503407013124 -0 -0 0:0.271 1:0.182 2:0.296 3:0.16 4:0.274 
-1.399037931442229 -0 -4.2443406652586 0:0.183 1:0.22 2:0.193 3:0.318 4:0.232 
-0 -1.587924748747835 -37.41652703725063 0:0.173 1:0.368 2:0.167 3:0.174 4:0.205 
-0 -0.2606257734668941 -0.6409592551746525 0:0.137 1:0.254 2:0.209 3:0.339 4:0.166 
-9.73925994499994 -0 -6.974432411063376 0:0.245 1:0.146 2:0.313 3:0.225 4:0.121 
-0 -0 -7.383592611763066 0:0.384 1:0.163 2:0.3 3:0.178 4:0.213 
-100 -0 -24.5484624551986 0:0.239 1:0.168 2:0.231 3:0.191 4:0.316 
-1.879367742048759 -0 -0 0:0.238 1:0.174 2:0.128 3:0.317 4:0.471 
-100 -0 -0 0:0.239 1:0.183 2:0.25 3:0.193 4:0.327 
-4.067138592608663 -0 -0 0:0.216 1:0.225 2:0.225 3:0.194 4:0.328 
-0 -16.78531939099337 -0 0:0.143 1:0.1 2:0.267 3:0.191 4:0.311 
-0 -0 -7.504637453058788 0:0.217 1:0.126 2:0.293 3:0.214 4:0.101 
-30.02114976589358 -0 -0 0:0.275 1:0.192 2:0.169 3:0.278 4:0.323 
-13.26150303231395 -0 -19.75646904791599 0:0.211 1:0.423 2:0.226 3:0.12 4:0.198 
-0 -0.9795328431592295 -0 0:0.383 1:0.153 2:0.299 3:0.177 4:0.204 
-1.464453411340761 -0.0893390417072811 -13.02861453537177 0:0.206 1:0.415 2:0.218 3:0.105 4:0.187 
-18.20730234582621 -0 -0 0:0.179 1:0.379 2:0.172 3:0.193 4:0.208 
-0 -2.22664122945345 -0 0:0.155 1:0.101 2:0.22 3:0.155 4:0.194 
-1.837098794063983 -0 -0 0:0.209 1:0.198 2:0.279 3:0.291 4:0.154 
-100 -0 -0 0:0.233 1:0.18 2:0.241 3:0.188 4:0.322 
-0 -0 -2.033309233138169 0:0.144 1:0.136 2:0.294 3:0.222 4:0.113 
-0 -0 -3.538606714655554 0:0.277 1:0.181 2:0.166 3:0.275 4:0.31 
-0 -0 -24.88544996375726 0:0.277 1:0.236 2:0.225 3:0.198 4:0.128 
-0 -0.526562823842835 -0 0:0.18 1:0.025 2:0.268 3:0.155 4:0.162 
-0 -15.27050764988125 -0 0:0.166 1:0.186 2:0.216 3:0.213 4:0.325 
-0 -1.69769359472184 -0 0:0.193 1:0.099 2:0.289 3:0.123 4:0.135 
-0 -0.8894239813431434 -0.5569628809227549 0:0.305 1:0.404 2:0.277 3:0.157 4:0.185 
-66.77437931935698 -0 -0 0:0.326 1:0.208 2:0.173 3:0.235 4:0.317 
-20.72919659505061 -0 -6.674061026323074 0:0.177 1:0.071 2:0.163 3:0.279 4:0.41 
-2.29816893090319 -2.582956310048561 -0 0:0.125 1:0.104 2:0.26 3:0.219 4:0.092 
-0 -1.158849586104215 -0 0:0.292 1:0.269 2:0.168 3:0.319 4:0.214 
-3.964419769708328 -0 -14.89462374584624 0:0.227 1:0.162 2:0.337 3:0.144 4:0.121 
-0.9961640274005682 -0 -0 0:0.233 1:0.156 2:0.221 3:0.22 4:0.182 
-0 -0 -7.437641700966904 0:0.098 1:0.205 2:0.375 3:0.163 4:0.163 
-0 -0.2192157345115353 -1.018795926403639 0:0.108 1:0.264 2:0.459 3:0.264 4:0.435 
-7.217479809902205 -0 -0 0:0.206 1:0.143 2:0.335 3:0.136 4:0.24 
-0 -0 -11.12177271284636 0:0.134 1:0.246 2:0.2 3:0.329 4:0.163 
-20.21253062815714 -0 -33.13668664905238 0:0.173 1:0.178 2:0.221 3:0.215 4:0.31 
-0 -2.278757886561278 -0 0:0.184 1:0.224 2:0.396 3:0.252 4:0.324 
-3.688143436164904 -6.641074470580248 -0.3273718977596735 0:0.142 1:0.057 2:0.137 3:0.114 4:0.126 
-0 -0.3953432858061589 -0 0:0.094 1:0.248 2:0.441 3:0.255 4:0.418 
-0 -1.267319559361379 -30.37118459368364 0:0.294 1:0.034 2:0.261 3:0.313 4:0.124 
-30.40788793908823 -0 -0 0:0.254 1:0.245 2:0.267 3:0.135 4:0.172 
-0 -0 -1.95061709107868 0:0.4 1:0.166 2:0.302 3:0.185 4:0.219 
-0.9855325159235346 -0.6065656659895226 -0.648921090077195 0:0.432 1:0.377 2:0.599 3:0.46 4:0.135 
-0 -0 -31.95624570410567 0:0.166 1:0.103 2:0.225 3:0.163 4:0.206 
-0 -0.1302456854049522 -0 0:0.237 1:0.231 2:0.247 3:0.119 4:0.149 
-9.312367315420028 -0.3311394500674563 -0 0:0.345 1:0.229 2:0.191 3:0.248 4:0.337 
-0 -0 -3.374375245592341 0:0.188 1:0.393 2:0.191 3:0.21 4:0.234 
-8.285396342025749 -3.631462131495414 -0 0:0.162 1:0.185 2:0.162 3:0.293 4:0.198 
-28.03383234190068 -0 -0 0:0.368 1:0.153 2:0.287 3:0.168 4:0.209 
-0 -0 -8.695166861893096 0:0.129 1:0.112 2:0.268 3:0.209 4:0.098 
-55.99053804571967 -0 -24.9695140650957 0:0.267 1:0.119 2:0.263 3:0.176 4:0.135 
