svm_type c_svc
kernel_type rbf
gamma 50
nr_class 4
total_sv 345
rho -0.877645 -0.586498 -1.27058 0.00462087 0.137971 0.0927098
label 4 2 1 3
nr_sv 127 95 43 80
SV
0 5.496448402764777 9.994408390879016 0:0.191 1:0.189 2:0.174 3:0.195 4:0.306 
0 0 3.112640109836786 0:0.308 1:0.508 2:0.309 3:0.253 4:0.17 
58.54072423997694 0 3.702512919003647 0:0.332 1:0.195 2:0.184 3:0.247 4:0.339 
0 2.865663945311129 0 0:0.389 1:0.112 2:0.456 3:0.277 4:0.185 
0 0 62.32223648059482 0:0.171 1:0.182 2:0.2 3:0.186 4:0.163 
0 0 0.5297036787775368 0:0.083 1:0.084 2:0.287 3:0.276 4:0.143 
0 0.09968851049155042 0.3828319205483981 0:0.057 1:0.465 2:0.275 3:0.362 4:0.136 
0.1730860722470661 0 0 0:0.245 1:0.111 2:0.254 3:0.184 4:0.208 
27.41868852099268 0 0 0:0.233 1:0.19 2:0.245 3:0.227 4:0.31 
0 1.609898241138928 22.84384768259779 0:0.274 1:0.303 2:0.16 3:0.123 4:0.149 
53.02169511847496 0 0 0:0.272 1:0.163 2:0.345 3:0.187 4:0.294 
0 0 0.104635970234971 0:0.377 1:0.103 2:0.443 3:0.25 4:0.164 
0 0 79.19921172664729 0:0.24 1:0.103 2:0.242 3:0.169 4:0.194 
5.529819303702313 0 0 0:0.247 1:0.449 2:0.183 3:0.151 4:0.24 
0 0.243984360604538 0 0:0.229 1:0.096 2:0.213 3:0.418 4:0.327 
48.47694584317172 0 0 0:0.316 1:0.209 2:0.301 3:0.128 4:0.201 
0 0.878723475666966 0 0:0.179 1:0.091 2:0.242 3:0.324 4:0.523 
83.04257677549306 0 0 0:0.264 1:0.183 2:0.225 3:0.186 4:0.325 
0.5357453761565766 0 0 0:0.295 1:0.481 2:0.342 3:0.228 4:0.174 
24.65053404136489 1.596932487932297 12.26221166876798 0:0.198 1:0.118 2:0.216 3:0.254 4:0.419 
40.97712043321599 8.374620823310416 79.72603965681724 0:0.273 1:0.163 2:0.312 3:0.18 4:0.119 
0.6164294414723377 0 0 0:0.341 1:0.429 2:0.231 3:0.217 4:0.147 
100 0 0 0:0.233 1:0.202 2:0.278 3:0.178 4:0.321 
0 11.70027349360512 0 0:0.173 1:0.14 2:0.134 3:0.25 4:0.323 
0 0 0.6044182416986017 0:0.303 1:0.19 2:0.337 3:0.3 4:0.443 
39.62388283104501 0 0 0:0.239 1:0.192 2:0.275 3:0.173 4:0.236 
0 0 12.03456135334213 0:0.253 1:0.463 2:0.2 3:0.153 4:0.252 
0 0 0.5233454929919378 0:0.336 1:0.428 2:0.225 3:0.213 4:0.137 
44.9980147448049 0 0 0:0.251 1:0.221 2:0.233 3:0.188 4:0.299 
10.41506470061767 2.48351064518319 0 0:0.164 1:0.051 2:0.186 3:0.291 4:0.341 
0 0.5232815858592519 0 0:0.266 1:0.357 2:0.329 3:0.142 4:0.311 
5.997694567165094 0 0 0:0.417 1:0.174 2:0.282 3:0.164 4:0.275 
100 0 0 0:0.215 1:0.203 2:0.19 3:0.206 4:0.32 
16.52937198917452 0 31.46862046516944 0:0.211 1:0.417 2:0.225 3:0.138 4:0.15 
5.367999614928927 0 9.252944647021961 0:0.193 1:0.32 2:0.245 3:0.287 4:0.104 
0 0 13.73575428932035 0:0.202 1:0.136 2:0.232 3:0.262 4:0.418 
0 0 12.31347190422655 0:0.233 1:0.164 2:0.175 3:0.192 4:0.176 
100 0 0 0:0.224 1:0.188 2:0.274 3:0.163 4:0.314 
0 0 42.66581617079618 0:0.226 1:0.175 2:0.262 3:0.16 4:0.231 
0 0.1688116979664055 0 0:0.291 1:0.307 2:0.168 3:0.134 4:0.146 
27.49312920331848 0 2.275813686356219 0:0.251 1:0.174 2:0.191 3:0.204 4:0.183 
2.154302845009655 0 0 0:0.267 1:0.468 2:0.218 3:0.154 4:0.264 
0 0 39.53800889631568 0:0.169 1:0.173 2:0.196 3:0.178 4:0.161 
0.06858403373139463 0.2304435012799568 0 0:0.294 1:0.773 2:0.319 3:0.376 4:0.46 
0 1.13737187353817 0 0:0.366 1:0.316 2:0.27 3:0.096 4:0.104 
100 0 20.34935957047411 0:0.211 1:0.215 2:0.201 3:0.217 4:0.319 
10.06032510169912 3.59752242109152 0 0:0.219 1:0.191 2:0.248 3:0.22 4:0.305 
1.939109876589737 1.987874877117659 0.04015319927106715 0:0.042 1:0.093 2:0.272 3:0.318 4:0.332 
0 0 35.79481949223472 0:0.27 1:0.133 2:0.224 3:0.19 4:0.327 
0 1.696665622937883 0 0:0.163 1:0.129 2:0.124 3:0.231 4:0.313 
0 0.2053610218557819 0 0:0.188 1:0.519 2:0.143 3:0.25 4:0.141 
0 0 83.44154059759038 0:0.215 1:0.421 2:0.171 3:0.231 4:0.179 
0 0 1.418874098565191 0:0.251 1:0.269 2:0.364 3:0.216 4:0.123 
0 0.1439077061011916 0 0:0.054 1:0.049 2:0.185 3:0.345 4:0.124 
0 0 11.30951062294985 0:0.26 1:0.162 2:0.198 3:0.147 4:0.291 
81.10029670238488 0.4909029043375188 0 0:0.223 1:0.152 2:0.268 3:0.166 4:0.319 
5.794320728609514 0 0 0:0.304 1:0.319 2:0.179 3:0.149 4:0.155 
0.05591938551520579 0.1923751276354632 0 0:0.288 1:0.772 2:0.282 3:0.355 4:0.438 
4.486291823338403 0 0 0:0.216 1:0.144 2:0.208 3:0.23 4:0.278 
1.957541173055306 0.5695914955500923 0 0:0.258 1:0.332 2:0.324 3:0.108 4:0.293 
0 0 18.06546773682603 0:0.169 1:0.412 2:0.188 3:0.223 4:0.143 
0 0 1.293873035265456 0:0.346 1:0.444 2:0.234 3:0.233 4:0.14 
0 0 36.90397631258632 0:0.23 1:0.164 2:0.167 3:0.231 4:0.321 
0 0 5.42270492971458 0:0.294 1:0.183 2:0.325 3:0.293 4:0.424 
0 0 24.36302814374483 0:0.217 1:0.428 2:0.275 3:0.219 4:0.175 
0.05958580469699959 0.203601062376818 0 0:0.176 1:0.69 2:0.181 3:0.543 4:0.419 
0 0 0.6762408389395259 0:0.264 1:0.287 2:0.294 3:0.334 4:0.323 
19.61187058937633 1.738256641434192 100 0:0.263 1:0.137 2:0.219 3:0.173 4:0.124 
86.06017309598855 0 0 0:0.282 1:0.2 2:0.232 3:0.203 4:0.335 
0 0 88.01557062890856 0:0.207 1:0.124 2:0.196 3:0.211 4:0.276 
0.1283759129255137 0 0 0:0.317 1:0.159 2:0.35 3:0.256 4:0.186 
5.505170981737546 1.505712718597914 0 0:0.247 1:0.312 2:0.31 3:0.122 4:0.105 
0 0.02890579339539517 36.68822887849223 0:0.164 1:0.395 2:0.175 3:0.214 4:0.132 
39.91549794985827 0 0 0:0.313 1:0.144 2:0.275 3:0.158 4:0.254 
14.96934906002175 0 18.25201915829901 0:0.173 1:0.34 2:0.267 3:0.178 4:0.198 
0.7495785321740773 0 0 0:0.158 1:0.036 2:0.179 3:0.274 4:0.322 
0.3432364545833586 0 7.927139074075086 0:0.238 1:0.114 2:0.223 3:0.433 4:0.349 
0.6411300716654339 0 0 0:0.247 1:0.136 2:0.138 3:0.258 4:0.261 
0 1.487337874458434 0 0:0.342 1:0.145 2:0.131 3:0.12 4:0.462 
0.06382408349486673 0.2138598164603667 0 0:0.158 1:0.67 2:0.175 3:0.516 4:0.401 
0 0.008678376046561896 0 0:0.163 1:0.494 2:0.126 3:0.232 4:0.134 
7.811485370550084 0 0 0:0.193 1:0.364 2:0.128 3:0.163 4:0.217 
27.13044913427617 0 7.845202103880799 0:0.215 1:0.185 2:0.306 3:0.254 4:0.16 
0 0.09414114592920281 0 0:0.488 1:0.099 2:0.283 3:0.333 4:0.116 
0 0 3.744454217139247 0:0.208 1:0.121 2:0.068 3:0.149 4:0.294 
0 0.7076911224873759 0 0:0.253 1:0 2:0.138 3:0.144 4:0.091 
4.228750763134741 0 12.46058263141691 0:0.258 1:0.315 2:0.254 3:0.204 4:0.224 
3.478861130962665 0 0 0:0.089 1:0.09 2:0.298 3:0.271 4:0.163 
0 5.588512525865004 0 0:0.191 1:0.198 2:0.215 3:0.345 4:0.4 
0 0 18.55299008739168 0:0.233 1:0.538 2:0.268 3:0.225 4:0.168 
0 0.05318081464328174 0 0:0.252 1:0.545 2:0.283 3:0.246 4:0.19 
0 0 6.245705938280437 0:0.168 1:0.273 2:0.133 3:0.135 4:0.228 
0 0 75.01548499021965 0:0.33 1:0.161 2:0.232 3:0.122 4:0.133 
0 0 2.877675420350067 0:0.192 1:0.248 2:0.325 3:0.163 4:0.395 
0 2.119429957151567 0 0:0.231 1:0.268 2:0.114 3:0.197 4:0.178 
57.6943914251239 0 0 0:0.246 1:0.202 2:0.277 3:0.178 4:0.237 
1.780710349625267 0 37.65903663691607 0:0.213 1:0.415 2:0.163 3:0.218 4:0.18 
0 13.70618059208795 0 0:0.169 1:0.164 2:0.183 3:0.174 4:0.149 
0 0 56.31746254879443 0:0.275 1:0.121 2:0.193 3:0.278 4:0.363 
0 0 16.13234664647969 0:0.318 1:0.171 2:0.156 3:0.225 4:0.309 
1.943429586649867 0.1285641006682038 1.357923842506674 0:0.487 1:0.086 2:0.269 3:0.318 4:0.109 
0 1.130307375728625 0 0:0.184 1:0.317 2:0.244 3:0.287 4:0.098 
2.514095794388518 2.617819720767264 0.5758351257625794 0:0.102 1:0.003 2:0.219 3:0.154 4:0.041 
21.68802014246398 0 0 0:0.298 1:0.135 2:0.285 3:0.151 4:0.239 
0 0 1.077647145738594 0:0.314 1:0.177 2:0.167 3:0.229 4:0.325 
0 31.48274305073254 0 0:0.317 1:0.153 2:0.219 3:0.111 4:0.121 
0 0 20.31514106294762 0:0.18 1:0.359 2:0.121 3:0.146 4:0.206 
41.58288312255208 0 0 0:0.184 1:0.186 2:0.201 3:0.204 4:0.173 
0 0 23.29901413846873 0:0.232 1:0.269 2:0.12 3:0.201 4:0.181 
6.540983319340475 0 3.997034840157025 0:0.26 1:0.191 2:0.267 3:0.216 4:0.364 
0 0.9291612203195896 10.12270096809065 0:0.304 1:0.194 2:0.288 3:0.11 4:0.167 
0 3.714267506318487 0 0:0.191 1:0.242 2:0.325 3:0.155 4:0.386 
2.279223355243554 0 0 0:0.427 1:0.19 2:0.316 3:0.191 4:0.294 
0 0.4222849262901018 0 0:0.341 1:0.295 2:0.475 3:0.209 4:0.07 
0 0 0.1335264830110105 0:0.199 1:0.211 2:0.23 3:0.366 4:0.424 
0 0.2992161667132279 0 0:0.339 1:0.529 2:0.335 3:0.273 4:0.195 
100 0 0 0:0.237 1:0.195 2:0.277 3:0.192 4:0.32 
0.8316338563705548 0 0 0:0.135 1:0.014 2:0.217 3:0.349 4:0.46 
0 0 1.999767994541317 0:0.312 1:0.213 2:0.194 3:0.244 4:0.413 
0 1.173691615870771 0 0:0.411 1:0.084 2:0.165 3:0.249 4:0.363 
0 0.1989434415176823 0 0:0.034 1:0.454 2:0.264 3:0.348 4:0.107 
0 2.125625522354668 0 0:0.1 1:0.099 2:0.31 3:0.297 4:0.166 
36.04108350573975 0 0 0:0.264 1:0.107 2:0.263 3:0.197 4:0.208 
0 8.14204203272382 0 0:0.146 1:0.245 2:0.112 3:0.124 4:0.208 
1.00523119908328 0 0 0:0.195 1:0.369 2:0.13 3:0.152 4:0.211 
0 0 2.423401099139456 0:0.432 1:0.104 2:0.178 3:0.274 4:0.367 
0 2.019949474561832 0 0:0.184 1:0.258 2:0.384 3:0.227 4:0.189 
-0 5.516680275545138 0 0:0.165 1:0.064 2:0.147 3:0.275 4:0.388 
-1.034286611508353 1.401569402125326 0.4584328298597064 0:0.397 1:0.055 2:0.557 3:0.404 4:0.252 
-100 0 0 0:0.253 1:0.195 2:0.251 3:0.195 4:0.339 
-24.25096386937673 0 26.21937325220692 0:0.267 1:0.119 2:0.263 3:0.176 4:0.135 
-0 0 23.30207271480448 0:0.211 1:0.19 2:0.173 3:0.286 4:0.131 
-1.14647842967475 0 100 0:0.165 1:0.226 2:0.215 3:0.193 4:0.145 
-0 0 3.99485019640142 0:0.134 1:0.238 2:0.198 3:0.324 4:0.157 
-0 2.378307743916142 0 0:0.184 1:0.224 2:0.396 3:0.252 4:0.324 
-0 0 19.55936472070911 0:0.222 1:0.16 2:0.326 3:0.139 4:0.123 
-100 0 0 0:0.258 1:0.176 2:0.298 3:0.154 4:0.279 
-4.540800916044214 0 3.257655651271407 0:0.183 1:0.384 2:0.175 3:0.193 4:0.216 
-100 0 0 0:0.271 1:0.182 2:0.296 3:0.16 4:0.274 
-62.51189378022791 0 0 0:0.326 1:0.208 2:0.173 3:0.235 4:0.317 
-1.755409435884292 0.3912428552331994 0 0:0.324 1:0.072 2:0.351 3:0.434 4:0.125 
-0 2.467384910053689 0 0:0.155 1:0.101 2:0.22 3:0.155 4:0.194 
-0 0.9758069113769782 0 0:0.322 1:0.22 2:0.376 3:0.124 4:0.373 
-8.121303333031264 0 0 0:0.27 1:0.381 2:0.257 3:0.152 4:0.168 
-1.276267893137931 2.522811500488507 0 0:0.125 1:0.104 2:0.26 3:0.219 4:0.092 
-14.75378539091886 0 100 0:0.176 1:0.113 2:0.234 3:0.168 4:0.213 
-0 0 8.524980731380245 0:0.294 1:0.273 2:0.175 3:0.327 4:0.218 
-0.8573136627470259 0 0 0:0.238 1:0.174 2:0.128 3:0.317 4:0.471 
-0 0 4.863123156192325 0:0.177 1:0.212 2:0.181 3:0.309 4:0.217 
-0 0 0.02316292381526402 0:0.183 1:0.22 2:0.193 3:0.318 4:0.232 
-0 0 8.988634938833163 0:0.206 1:0.415 2:0.218 3:0.105 4:0.187 
-8.3566939203152 0 0 0:0.273 1:0.191 2:0.3 3:0.166 4:0.283 
-0 0 27.28832671232047 0:0.299 1:0.039 2:0.272 3:0.313 4:0.13 
-0 0 26.9790434621866 0:0.166 1:0.103 2:0.225 3:0.163 4:0.206 
-0 1.002217918960165 0 0:0.298 1:0.194 2:0.359 3:0.104 4:0.362 
-0 4.044057969449917 0 0:0.129 1:0.05 2:0.126 3:0.107 4:0.134 
-2.890375113523862 1.121573675062865 1.94234740794124 0:0.254 1:0.184 2:0.139 3:0.335 4:0.475 
-18.69309713862865 0.5949907656923096 0 0:0.178 1:0.21 2:0.387 3:0.243 4:0.321 
-1.567798992158935 0 95.33074247291317 0:0.175 1:0.23 2:0.22 3:0.191 4:0.159 
-20.71587286655036 0 11.34751993388024 0:0.245 1:0.146 2:0.313 3:0.225 4:0.121 
-0 0 12.75705783515467 0:0.216 1:0.233 2:0.232 3:0.196 4:0.337 
-7.705908665310438 3.830157822661522 0 0:0.162 1:0.185 2:0.162 3:0.293 4:0.198 
-0 0 4.469504323125121 0:0.217 1:0.126 2:0.293 3:0.214 4:0.101 
-5.214017895594456 0 0 0:0.206 1:0.143 2:0.335 3:0.136 4:0.24 
-4.183269323124158 0.8187901158630304 0 0:0.305 1:0.404 2:0.277 3:0.157 4:0.185 
-2.249787146829147 3.22593754812709 0 0:0.11 1:0.212 2:0.377 3:0.174 4:0.172 
-21.06337904944568 0 6.450067139799193 0:0.177 1:0.071 2:0.163 3:0.279 4:0.41 
-2.012520563569516 0 0 0:0.216 1:0.015 2:0.259 3:0.075 4:0.193 
-0 16.3930816788026 0 0:0.143 1:0.1 2:0.267 3:0.191 4:0.311 
-0 1.117941659385139 0 0:0.309 1:0.279 2:0.177 3:0.341 4:0.227 
-0 1.437130355900676 0 0:0.193 1:0.099 2:0.289 3:0.123 4:0.135 
-0 0 1.609132233364815 0:0.4 1:0.166 2:0.302 3:0.185 4:0.219 
-7.19540792915434 0 0 0:0.253 1:0.237 2:0.255 3:0.125 4:0.163 
-0 0.3920452791636698 0.5208653020674073 0:0.094 1:0.248 2:0.441 3:0.255 4:0.418 
-100 0 0 0:0.216 1:0.219 2:0.222 3:0.193 4:0.326 
-0 3.185423721828807 0 0:0.19 1:0 2:0.242 3:0.06 4:0.176 
-1.717546930673578 17.5050062644666 14.22194302780591 0:0.273 1:0.235 2:0.206 3:0.196 4:0.11 
-0 0 2.343547677681938 0:0.166 1:0.051 2:0.135 3:0.26 4:0.382 
-0 0.8719215025352838 0 0:0.18 1:0.025 2:0.268 3:0.155 4:0.162 
-2.549218056102693 1.566065807446345 34.55312911226781 0:0.173 1:0.368 2:0.167 3:0.174 4:0.205 
-0 0 8.329813991723141 0:0.087 1:0.198 2:0.37 3:0.152 4:0.144 
-1.011490679762277 0.4938805124345654 0.6140809582296437 0:0.456 1:0.4 2:0.61 3:0.473 4:0.153 
-0.9728686808383664 0.117838273570233 0.7202847213885373 0:0.42 1:0.075 2:0.59 3:0.436 4:0.259 
-1.002207982342088 0.6016201576977047 0.6059462561268255 0:0.429 1:0.381 2:0.598 3:0.446 4:0.121 
-0 0.3126124180121542 0 0:0.237 1:0.231 2:0.247 3:0.119 4:0.149 
-22.00932483667146 0 34.89912771072528 0:0.173 1:0.178 2:0.221 3:0.215 4:0.31 
-28.69149108139391 0 0 0:0.287 1:0.142 2:0.282 3:0.188 4:0.166 
-100 0 0 0:0.239 1:0.183 2:0.25 3:0.193 4:0.327 
-0 0.03862126614696677 3.232073933176303 0:0.277 1:0.181 2:0.166 3:0.275 4:0.31 
-4.503860306127708 0 0 0:0.209 1:0.198 2:0.279 3:0.291 4:0.154 
-26.83241379891527 0 0 0:0.169 1:0.125 2:0.29 3:0.196 4:0.322 
-100 0 13.69536205754034 0:0.216 1:0.214 2:0.208 3:0.193 4:0.322 
-0 0 1.110169735286544 0:0.198 1:0.231 2:0.403 3:0.264 4:0.332 
-36.74576439958983 0 0 0:0.216 1:0.225 2:0.225 3:0.194 4:0.328 
-83.52746193553182 0 35.27595924573131 0:0.238 1:0.171 2:0.223 3:0.217 4:0.195 
-0 0.2311543798640245 9.02968611834244 0:0.147 1:0.265 2:0.22 3:0.343 4:0.177 
-0 15.41413214741518 0 0:0.166 1:0.186 2:0.216 3:0.213 4:0.325 
-70.59892401650362 0 0 0:0.277 1:0.192 2:0.305 3:0.172 4:0.284 
-0 0.2086077196906894 0.4870215862490225 0:0.108 1:0.264 2:0.459 3:0.264 4:0.435 
-32.17718670697978 0 0 0:0.254 1:0.245 2:0.267 3:0.135 4:0.172 
-0 1.144142424344302 9.893645611785445 0:0.298 1:0.042 2:0.34 3:0.403 4:0.092 
-0 0.7463357638085747 1.592646014478109 0:0.198 1:0.133 2:0.308 3:0.13 4:0.097 
-9.910905613963772 0 0 0:0.179 1:0.379 2:0.172 3:0.193 4:0.208 
-16.32632127927352 0 20.78968578656527 0:0.211 1:0.423 2:0.226 3:0.12 4:0.198 
-0.7081569712478027 0 0 0:0.323 1:0.215 2:0.378 3:0.118 4:0.381 
-11.11021761220956 0 0 0:0.227 1:0.162 2:0.337 3:0.144 4:0.121 
-0 0 31.49033928905643 0:0.277 1:0.236 2:0.225 3:0.198 4:0.128 
-0 0 5.115814266076971 0:0.129 1:0.112 2:0.268 3:0.209 4:0.098 
-0 0.1949081979942793 0 0:0.188 1:0.404 2:0.22 3:0.1 4:0.183 
-33.04691845505435 0 49.95380669994744 0:0.191 1:0.251 2:0.242 3:0.213 4:0.176 
-100 0 23.79873231717149 0:0.239 1:0.168 2:0.231 3:0.191 4:0.316 
-15.30483377952808 0.2316861561937301 0 0:0.345 1:0.229 2:0.191 3:0.248 4:0.337 
-100 0 0 0:0.242 1:0.185 2:0.26 3:0.195 4:0.331 
-0 1.274476031525422 41.63529634203285 0:0.302 1:0.046 2:0.275 3:0.318 4:0.132 
-0 1.497105620623822 0.7460933660865128 0:0.383 1:0.153 2:0.299 3:0.177 4:0.204 
-0 0 3.545237728418901 0:0.247 1:0.232 2:0.25 3:0.124 4:0.153 
-0 0 7.805364105293902 0:0.144 1:0.136 2:0.294 3:0.222 4:0.113 
-4.198089279056438 6.105832203106126 0 0:0.142 1:0.057 2:0.137 3:0.114 4:0.126 
-0 0 52.98003518673577 0:0.204 1:0.191 2:0.267 3:0.278 4:0.132 
-0 0 6.597423385522792 0:0.384 1:0.163 2:0.3 3:0.178 4:0.213 
-26.04305241513069 0 0 0:0.275 1:0.192 2:0.169 3:0.278 4:0.323 
-34.53935233563112 0 0 0:0.368 1:0.153 2:0.287 3:0.168 4:0.209 
-0 -0.8750659559375539 0.5018949485986349 0:0.435 1:0.17 2:0.544 3:0.265 4:0.178 
-0 -1.431496159127721 0 0:0.306 1:0.243 2:0.291 3:0.271 4:0.012 
-0 -4.260302131151041 25.70342548337902 0:0.187 1:0.234 2:0.133 3:0.168 4:0.142 
-14.30577892188594 -0 0 0:0.171 1:0.219 2:0.125 3:0.16 4:0.15 
-0.0119922298530494 -8.481524041265615 11.32057701966956 0:0.298 1:0.272 2:0.182 3:0.22 4:0.108 
-1.528944629450425 -0 1.817544520355288 0:0.314 1:0.264 2:0.3 3:0.297 4:0.031 
-0 -0 1.116946304839312 0:0.164 1:0.121 2:0.118 3:0.125 4:0.34 
-1.400281861411434 -0 0.4886124583841506 0:0.408 1:0.152 2:0.522 3:0.253 4:0.154 
-2.057112779445897 -0 0 0:0.103 1:0.206 2:0.182 3:0.163 4:0.2 
-0 -19.30142490690786 2.806583848790011 0:0.132 1:0.116 2:0.233 3:0.178 4:0.327 
-0 -0.5644323746680725 0 0:0.106 1:0.127 2:0.275 3:0.266 4:0.313 
-0 -0 1.97159310956854 0:0.172 1:0.233 2:0.35 3:0.172 4:0.263 
-0 -0.6683382658188466 0 0:0.283 1:0.009 2:0.243 3:0.095 4:0.069 
-0 -0 0.7487138173410588 0:0.314 1:0.111 2:0.524 3:0.349 4:0.133 
-4.882262911607579 -10.25138467615746 1.858201164880239 0:0.134 1:0.041 2:0.214 3:0.12 4:0.127 
-25.55858145306808 -7.272926209532955 36.73203055317288 0:0.3 1:0.169 2:0.242 3:0.126 4:0.112 
-4.573655769710133 -4.428026434518656 3.985234312372716 0:0.195 1:0.127 2:0.293 3:0.32 4:0.11 
-0.6107665096344397 -0 0 0:0.11 1:0.107 2:0.126 3:0.111 4:0.185 
-0 -1.618053089216582 0 0:0.131 1:0.025 2:0.2 3:0.107 4:0.125 
-0 -5.937040238248859 0 0:0.162 1:0.224 2:0.347 3:0.17 4:0.263 
-0.3905262790677362 -0 1.187328020806323 0:0.161 1:0.219 2:0.346 3:0.153 4:0.248 
-1.705346570181276 -0 0 0:0.4 1:0.152 2:0.524 3:0.252 4:0.16 
-3.485416933035876 -0 0 0:0.107 1:0.223 2:0.186 3:0.17 4:0.212 
-1.114979853806875 -0 0.759633406881326 0:0.3 1:0.269 2:0.177 3:0.224 4:0.107 
-0.2935349181729529 -0.5486040911457601 0.2111095204303503 0:0.324 1:0 2:0.08 3:0.202 4:0.358 
-19.49209744312584 -11.79941661616454 7.414216542539397 0:0.168 1:0.149 2:0.187 3:0.269 4:0.315 
-0.6291244219088566 -0 3.526543374783674 0:0.115 1:0.103 2:0.144 3:0.11 4:0.196 
-2.808077013657107 -0 4.160129822376049 0:0.303 1:0.023 2:0.263 3:0.112 4:0.073 
-0 -2.586134758752033 3.548506478432462 0:0.104 1:0.22 2:0.199 3:0.18 4:0.219 
-0 -4.884790119209177 0 0:0.286 1:0.244 2:0.164 3:0.21 4:0.1 
-0.8117076465299395 -1.422229253648829 0.5936247936235451 0:0.092 1:0.145 2:0.068 3:0.073 4:0.017 
-14.44334360465805 -0 0 0:0.295 1:0.166 2:0.226 3:0.12 4:0.108 
-0 -3.563158746116861 0 0:0.089 1:0.094 2:0.106 3:0.095 4:0.179 
-0.4020476937485294 -1.339004495558046 0 0:0.323 1:0.116 2:0.528 3:0.354 4:0.149 
-0.2077044717898128 -0 0 0:0.118 1:0.174 2:0.225 3:0.334 4:0.454 
-6.094830474597822 -2.189914839991112 0 0:0.185 1:0.238 2:0.358 3:0.18 4:0.278 
-3.740028468778368 -2.239881832900904 1.885908955699293 0:0.294 1:0.263 2:0.247 3:0.134 4:0.418 
-8.45483240648743 -0.2888860118135978 2.375496154556772 0:0.173 1:0.146 2:0.141 3:0.155 4:0.347 
-0.2558256594211263 -0.5239184346222543 0 0:0.288 1:0.251 2:0.246 3:0.122 4:0.421 
-1.280939907631145 -0 0 0:0.312 1:0.113 2:0.517 3:0.336 4:0.129 
-0 -2.402291196954189 0 0:0.119 1:0.137 2:0.277 3:0.283 4:0.314 
-2.648736439851553 -1.091131415938536 1.474156055408093 0:0.345 1:0.005 2:0.116 3:0.228 4:0.378 
-4.945481544263447 -1.403722661145713 1.569011773124395 0:0.138 1:0.197 2:0.234 3:0.352 4:0.472 
-24.26476165268934 -55.18781670361038 -0 0:0.187 1:0.238 2:0.232 3:0.198 4:0.297 
-30.12008544585615 -0 -0 0:0.328 1:0.149 2:0.173 3:0.277 4:0.328 
-8.531898554495145 -71.2053136129646 -0 0:0.288 1:0.065 2:0.28 3:0.302 4:0.105 
-12.49397585417008 -0 -0.4958115373914913 0:0.256 1:0.52 2:0.254 3:0.211 4:0.133 
-0 -0 -6.549617537399017 0:0.175 1:0.217 2:0.124 3:0.233 4:0.164 
-16.11941028873983 -0 -0.2964762343543305 0:0.278 1:0.17 2:0.282 3:0.241 4:0.44 
-12.85847336015396 -0 -0.4174829699272135 0:0.252 1:0.473 2:0.288 3:0.241 4:0.227 
-0 -0 -1.572822646328952 0:0.105 1:0.118 2:0.299 3:0.158 4:0.101 
-48.53390354204361 -0 -0 0:0.175 1:0.402 2:0.134 3:0.245 4:0.169 
-8.508030796344498 -0 -0 0:0.151 1:0.388 2:0.246 3:0.27 4:0.167 
-5.917539000371106 -0 -0 0:0.228 1:0.378 2:0.187 3:0.134 4:0.039 
-0 -0 -0.8967810735088014 0:0.235 1:0.191 2:0.298 3:0.176 4:0.113 
-0 -37.69651756052001 -0 0:0.17 1:0.327 2:0.156 3:0.14 4:0.168 
-0.03236005387010739 -13.53212648605391 -0 0:0.308 1:0.02 2:0.284 3:0.376 4:0.179 
-0 -8.857414185729073 -7.349575036877153 0:0.166 1:0.22 2:0.214 3:0.195 4:0.29 
-0 -58.23159760243151 -0 0:0.215 1:0.226 2:0.218 3:0.285 4:0.161 
-12.70493529731757 -0 -0 0:0.238 1:0.511 2:0.246 3:0.202 4:0.125 
-0 -8.165095062288378 -0 0:0.195 1:0.225 2:0.131 3:0.243 4:0.184 
-0 -0 -6.69884691143511 0:0.169 1:0.116 2:0.116 3:0.112 4:0.217 
-21.12997337449419 -0 -0 0:0.277 1:0.136 2:0.232 3:0.156 4:0.187 
-0.654544245982559 -0 -0 0:0.389 1:0.204 2:0.318 3:0.22 4:0.19 
-100 -0 -0 0:0.202 1:0.41 2:0.197 3:0.202 4:0.171 
-0 -8.244848303108464 -0 0:0.289 1:0.121 2:0.248 3:0.137 4:0.118 
-0.973203080934505 -0 -0 0:0.216 1:0.116 2:0.225 3:0.247 4:0.374 
-67.55678427585346 -0 -1.548530377621399 0:0.206 1:0.158 2:0.216 3:0.182 4:0.11 
-44.36439555697844 -0 -0 0:0.24 1:0.138 2:0.18 3:0.223 4:0.333 
-0 -0 -18.04468154471195 0:0.254 1:0.224 2:0.175 3:0.113 4:0.124 
-62.24217368379357 -0 -0 0:0.219 1:0.139 2:0.181 3:0.171 4:0.224 
-1.352990297369952 -22.26639738700577 -0 0:0.115 1:0.128 2:0.326 3:0.171 4:0.113 
-66.01328806315361 -15.73363359614365 -0 0:0.253 1:0.199 2:0.305 3:0.195 4:0.142 
-10.19041499075649 -0 -0 0:0.226 1:0.122 2:0.237 3:0.247 4:0.383 
-2.254122289616661 -0 -0 0:0.207 1:0.457 2:0.161 3:0.112 4:0.092 
-100 -100 -0 0:0.195 1:0.125 2:0.232 3:0.174 4:0.219 
-14.03974482289468 -12.98669968084562 -0 0:0.214 1:0.408 2:0.195 3:0.204 4:0.185 
-100 -21.15567449188451 -0 0:0.247 1:0.14 2:0.193 3:0.227 4:0.333 
-7.811918679300173 -0 -0 0:0.325 1:0.1 2:0.392 3:0.132 4:0.083 
-14.70044509667683 -1.246676361138997 -1.540490472741517 0:0.226 1:0.148 2:0.234 3:0.427 4:0.382 
-37.30772461494016 -0 -0 0:0.229 1:0.418 2:0.208 3:0.223 4:0.195 
-0 -1.254999431307192 -3.391395655672235 0:0.126 1:0.2 2:0.117 3:0.231 4:0.099 
-4.997841596060693 -2.999929887396892 -0 0:0.144 1:0.395 2:0.249 3:0.262 4:0.17 
-3.581879148092716 -0 -0 0:0.155 1:0.028 2:0.255 3:0.242 4:0.329 
-0 -10.96198521063455 -0 0:0.29 1:0 2:0.271 3:0.363 4:0.154 
-0 -100 -0 0:0.163 1:0.219 2:0.225 3:0.204 4:0.138 
-0 -10.35834286813478 -5.989642582290753 0:0.198 1:0.106 2:0.211 3:0.239 4:0.371 
-6.898258353061305 -0 -0 0:0.213 1:0.432 2:0.19 3:0.13 4:0.216 
-2.965957219650301 -2.62713883530739 -0.4686454931708798 0:0.355 1:0.18 2:0.182 3:0.3 4:0.355 
-10.27747747693908 -0 -3.963270913246606 0:0.163 1:0.316 2:0.142 3:0.129 4:0.161 
-0 -6.169733153052801 -8.470950443818953 0:0.296 1:0.271 2:0.207 3:0.279 4:0.113 
-0 -100 -0 0:0.173 1:0.23 2:0.233 3:0.214 4:0.154 
-34.08877542267056 -0 -2.603561202899681 0:0.183 1:0.208 2:0.121 3:0.231 4:0.177 
-0 -4.33836026520193 -0 0:0.257 1:0.159 2:0.272 3:0.229 4:0.432 
-0 -0 -0.5796167152793735 0:0.293 1:0 2:0.275 3:0.372 4:0.163 
-10.3769535481571 -0 -0 0:0.297 1:0.129 2:0.25 3:0.139 4:0.122 
-0 -12.155217631697 -0 0:0.375 1:0.19 2:0.291 3:0.199 4:0.178 
-0 -0 -0.3832152976561073 0:0.299 1:0.003 2:0.284 3:0.375 4:0.171 
-0 -19.63744115335392 -0 0:0.238 1:0.188 2:0.3 3:0.18 4:0.131 
-1.91053314969577 -4.753422510942982 -0 0:0.235 1:0.243 2:0.232 3:0.306 4:0.19 
-17.84288423161873 -0 -0 0:0.211 1:0.107 2:0.216 3:0.245 4:0.366 
-36.24507234374118 -20.71876160758405 -3.627486704017802 0:0.292 1:0.244 2:0.189 3:0.137 4:0.152 
-9.991176456979947 -0 -0 0:0.228 1:0.281 2:0.171 3:0.091 4:0.222 
-0 -1.430819326833976 -2.002530966747636 0:0.305 1:0.086 2:0.359 3:0.106 4:0.056 
-62.43925620663866 -0 -0 0:0.274 1:0.131 2:0.232 3:0.157 4:0.169 
-0 -5.025385020138448 -0 0:0.198 1:0.228 2:0.131 3:0.255 4:0.197 
-0 -3.040987186421932 -0 0:0.312 1:0.083 2:0.375 3:0.115 4:0.068 
-0 -57.83547008974607 -0 0:0.231 1:0.192 2:0.24 3:0.201 4:0.127 
-4.245322484122767 -3.590737300229701 -0 0:0.114 1:0.435 2:0.208 3:0.133 4:0.169 
-17.58918575851763 -0 -0 0:0.177 1:0.23 2:0.219 3:0.192 4:0.289 
-17.21062827689004 -0 -0 0:0.183 1:0.332 2:0.155 3:0.136 4:0.183 
-6.899054561358404 -0 -0 0:0.225 1:0.434 2:0.207 3:0.138 4:0.226 
-0 -0 -5.890577420535313 0:0.214 1:0.308 2:0.118 3:0.205 4:0.101 
-5.206021166039563 -0 -0 0:0.366 1:0.185 2:0.287 3:0.191 4:0.168 
-0 -61.06284659560024 -0 0:0.179 1:0.12 2:0.222 3:0.158 4:0.212 
-22.14190331600549 -6.880267584175704 -3.057041476383979 0:0.155 1:0.218 2:0.222 3:0.203 4:0.137 
-5.376775529682024 -0 -0 0:0.217 1:0.465 2:0.175 3:0.122 4:0.107 
-0 -4.719170833512715 -1.848172090234713 0:0.14 1:0.013 2:0.238 3:0.222 4:0.313 
-0 -0 -0.4293410245808174 0:0.161 1:0.194 2:0.295 3:0.138 4:0.088 
-0 -28.87769664467665 -0 0:0.21 1:0.43 2:0.203 3:0.129 4:0.215 
-16.93890092397954 -0 -0 0:0.243 1:0.345 2:0.128 3:0.241 4:0.136 
-100 -0 -28.91825653274339 0:0.306 1:0.141 2:0.256 3:0.143 4:0.124 
-2.807521502415991 -0 -0.7222015784379286 0:0.265 1:0.039 2:0.266 3:0.291 4:0.083 
